<?xml version="1.0" encoding="UTF-8" standalone="yes"?>
<PMML xmlns="http://www.dmg.org/PMML-4_4" xmlns:data="http://jpmml.org/jpmml-model/InlineTable" version="4.4">
	<Header>
		<Application name="SkLearn2PMML package" version="0.98.0"/>
		<Timestamp>2024-06-14T06:53:51Z</Timestamp>
	</Header>
	<MiningBuildTask>
		<Extension name="repr">PMMLPipeline(steps=[('classifier', XGBClassifier(base_score=None, booster=None, callbacks=None,
              colsample_bylevel=None, colsample_bynode=None,
              colsample_bytree=None, early_stopping_rounds=None,
              enable_categorical=False, eval_metric=None, feature_types=None,
              gamma=None, gpu_id=None, grow_policy=None, importance_type=None,
              interaction_constraints=None, learning_rate=0.1, max_bin=None,
              max_cat_threshold=None, max_cat_to_onehot=None,
              max_delta_step=None, max_depth=3, max_leaves=None,
              min_child_weight=None, missing=nan, monotone_constraints=None,
              n_estimators=140, n_jobs=None, num_parallel_tree=None,
              predictor=None, random_state=None, ...))])</Extension>
	</MiningBuildTask>
	<DataDictionary>
		<DataField name="label" optype="categorical" dataType="integer">
			<Value value="0"/>
			<Value value="1"/>
		</DataField>
		<DataField name="cheat_career_xjdk_features_0" optype="continuous" dataType="float">
			<Value value="NaN" property="missing"/>
		</DataField>
		<DataField name="cheat_career_xjdk_features_1" optype="continuous" dataType="float">
			<Value value="NaN" property="missing"/>
		</DataField>
		<DataField name="cheat_career_xjdk_features_118" optype="continuous" dataType="float">
			<Value value="NaN" property="missing"/>
		</DataField>
		<DataField name="cheat_career_xjdk_features_12" optype="continuous" dataType="float">
			<Value value="NaN" property="missing"/>
		</DataField>
		<DataField name="cheat_career_xjdk_features_14" optype="continuous" dataType="float">
			<Value value="NaN" property="missing"/>
		</DataField>
		<DataField name="cheat_career_xjdk_features_15" optype="continuous" dataType="float">
			<Value value="NaN" property="missing"/>
		</DataField>
		<DataField name="cheat_career_xjdk_features_16" optype="continuous" dataType="float">
			<Value value="NaN" property="missing"/>
		</DataField>
		<DataField name="cheat_career_xjdk_features_18" optype="continuous" dataType="float">
			<Value value="NaN" property="missing"/>
		</DataField>
		<DataField name="cheat_career_xjdk_features_19" optype="continuous" dataType="float">
			<Value value="NaN" property="missing"/>
		</DataField>
		<DataField name="cheat_career_xjdk_features_20" optype="continuous" dataType="float">
			<Value value="NaN" property="missing"/>
		</DataField>
		<DataField name="cheat_career_xjdk_features_21" optype="continuous" dataType="float">
			<Value value="NaN" property="missing"/>
		</DataField>
		<DataField name="cheat_career_xjdk_features_22" optype="continuous" dataType="float">
			<Value value="NaN" property="missing"/>
		</DataField>
		<DataField name="cheat_career_xjdk_features_3" optype="continuous" dataType="float">
			<Value value="NaN" property="missing"/>
		</DataField>
		<DataField name="cheat_career_xjdk_features_30" optype="continuous" dataType="float">
			<Value value="NaN" property="missing"/>
		</DataField>
		<DataField name="cheat_career_xjdk_features_4" optype="continuous" dataType="float">
			<Value value="NaN" property="missing"/>
		</DataField>
		<DataField name="cheat_career_xjdk_features_732" optype="continuous" dataType="float">
			<Value value="NaN" property="missing"/>
		</DataField>
		<DataField name="cheat_career_xjdk_features_8" optype="continuous" dataType="float">
			<Value value="NaN" property="missing"/>
		</DataField>
		<DataField name="cheat_career_xjdk_features_821" optype="continuous" dataType="float">
			<Value value="NaN" property="missing"/>
		</DataField>
		<DataField name="cheat_career_xjdk_features_866" optype="continuous" dataType="float">
			<Value value="NaN" property="missing"/>
		</DataField>
		<DataField name="fp_features_114" optype="continuous" dataType="float">
			<Value value="NaN" property="missing"/>
		</DataField>
		<DataField name="fp_features_117" optype="continuous" dataType="float">
			<Value value="NaN" property="missing"/>
		</DataField>
		<DataField name="fp_features_118" optype="continuous" dataType="float">
			<Value value="NaN" property="missing"/>
		</DataField>
		<DataField name="fp_features_181" optype="continuous" dataType="float">
			<Value value="NaN" property="missing"/>
		</DataField>
		<DataField name="fp_features_28" optype="continuous" dataType="float">
			<Value value="NaN" property="missing"/>
		</DataField>
		<DataField name="fp_features_29" optype="continuous" dataType="float">
			<Value value="NaN" property="missing"/>
		</DataField>
		<DataField name="fp_features_31" optype="continuous" dataType="float">
			<Value value="NaN" property="missing"/>
		</DataField>
		<DataField name="fp_features_32" optype="continuous" dataType="float">
			<Value value="NaN" property="missing"/>
		</DataField>
		<DataField name="fp_features_4" optype="continuous" dataType="float">
			<Value value="NaN" property="missing"/>
		</DataField>
		<DataField name="fp_features_41" optype="continuous" dataType="float">
			<Value value="NaN" property="missing"/>
		</DataField>
		<DataField name="fp_features_5" optype="continuous" dataType="float">
			<Value value="NaN" property="missing"/>
		</DataField>
		<DataField name="fp_features_53" optype="continuous" dataType="float">
			<Value value="NaN" property="missing"/>
		</DataField>
		<DataField name="fp_features_55" optype="continuous" dataType="float">
			<Value value="NaN" property="missing"/>
		</DataField>
		<DataField name="fp_features_57" optype="continuous" dataType="float">
			<Value value="NaN" property="missing"/>
		</DataField>
		<DataField name="fp_features_6" optype="continuous" dataType="float">
			<Value value="NaN" property="missing"/>
		</DataField>
		<DataField name="fp_features_7" optype="continuous" dataType="float">
			<Value value="NaN" property="missing"/>
		</DataField>
		<DataField name="fp_features_77" optype="continuous" dataType="float">
			<Value value="NaN" property="missing"/>
		</DataField>
		<DataField name="fp_features_79" optype="continuous" dataType="float">
			<Value value="NaN" property="missing"/>
		</DataField>
		<DataField name="fp_features_8" optype="continuous" dataType="float">
			<Value value="NaN" property="missing"/>
		</DataField>
		<DataField name="fp_features_80" optype="continuous" dataType="float">
			<Value value="NaN" property="missing"/>
		</DataField>
		<DataField name="fp_features_83" optype="continuous" dataType="float">
			<Value value="NaN" property="missing"/>
		</DataField>
		<DataField name="fp_features_89" optype="continuous" dataType="float">
			<Value value="NaN" property="missing"/>
		</DataField>
		<DataField name="fp_features_91" optype="continuous" dataType="float">
			<Value value="NaN" property="missing"/>
		</DataField>
		<DataField name="fp_features_92" optype="continuous" dataType="float">
			<Value value="NaN" property="missing"/>
		</DataField>
		<DataField name="fp_features_93" optype="continuous" dataType="float">
			<Value value="NaN" property="missing"/>
		</DataField>
		<DataField name="group_aml_nsf_profile_features_411" optype="continuous" dataType="float">
			<Value value="NaN" property="missing"/>
		</DataField>
		<DataField name="group_aml_nsf_profile_features_418" optype="continuous" dataType="float">
			<Value value="NaN" property="missing"/>
		</DataField>
		<DataField name="group_aml_nsf_profile_features_427" optype="continuous" dataType="float">
			<Value value="NaN" property="missing"/>
		</DataField>
		<DataField name="group_aml_nsf_profile_features_428" optype="continuous" dataType="float">
			<Value value="NaN" property="missing"/>
		</DataField>
		<DataField name="group_aml_nsf_profile_features_433" optype="continuous" dataType="float">
			<Value value="NaN" property="missing"/>
		</DataField>
		<DataField name="group_aml_nsf_profile_features_435" optype="continuous" dataType="float">
			<Value value="NaN" property="missing"/>
		</DataField>
		<DataField name="group_aml_nsf_profile_features_437" optype="continuous" dataType="float">
			<Value value="NaN" property="missing"/>
		</DataField>
		<DataField name="group_aml_nsf_profile_features_439" optype="continuous" dataType="float">
			<Value value="NaN" property="missing"/>
		</DataField>
		<DataField name="group_aml_nsf_profile_features_441" optype="continuous" dataType="float">
			<Value value="NaN" property="missing"/>
		</DataField>
		<DataField name="group_aml_nsf_profile_features_760" optype="continuous" dataType="float">
			<Value value="NaN" property="missing"/>
		</DataField>
		<DataField name="group_aml_nsf_profile_features_765" optype="continuous" dataType="float">
			<Value value="NaN" property="missing"/>
		</DataField>
		<DataField name="group_aml_nsf_profile_features_780" optype="continuous" dataType="float">
			<Value value="NaN" property="missing"/>
		</DataField>
		<DataField name="ovd_features_101" optype="continuous" dataType="float">
			<Value value="NaN" property="missing"/>
		</DataField>
		<DataField name="ovd_features_105" optype="continuous" dataType="float">
			<Value value="NaN" property="missing"/>
		</DataField>
		<DataField name="ovd_features_108" optype="continuous" dataType="float">
			<Value value="NaN" property="missing"/>
		</DataField>
		<DataField name="ovd_features_11" optype="continuous" dataType="float">
			<Value value="NaN" property="missing"/>
		</DataField>
		<DataField name="ovd_features_113" optype="continuous" dataType="float">
			<Value value="NaN" property="missing"/>
		</DataField>
		<DataField name="ovd_features_114" optype="continuous" dataType="float">
			<Value value="NaN" property="missing"/>
		</DataField>
		<DataField name="ovd_features_115" optype="continuous" dataType="float">
			<Value value="NaN" property="missing"/>
		</DataField>
		<DataField name="ovd_features_12" optype="continuous" dataType="float">
			<Value value="NaN" property="missing"/>
		</DataField>
		<DataField name="ovd_features_120" optype="continuous" dataType="float">
			<Value value="NaN" property="missing"/>
		</DataField>
		<DataField name="ovd_features_123" optype="continuous" dataType="float">
			<Value value="NaN" property="missing"/>
		</DataField>
		<DataField name="ovd_features_127" optype="continuous" dataType="float">
			<Value value="NaN" property="missing"/>
		</DataField>
		<DataField name="ovd_features_131" optype="continuous" dataType="float">
			<Value value="NaN" property="missing"/>
		</DataField>
		<DataField name="ovd_features_138" optype="continuous" dataType="float">
			<Value value="NaN" property="missing"/>
		</DataField>
		<DataField name="ovd_features_139" optype="continuous" dataType="float">
			<Value value="NaN" property="missing"/>
		</DataField>
		<DataField name="ovd_features_15" optype="continuous" dataType="float">
			<Value value="NaN" property="missing"/>
		</DataField>
		<DataField name="ovd_features_151" optype="continuous" dataType="float">
			<Value value="NaN" property="missing"/>
		</DataField>
		<DataField name="ovd_features_152" optype="continuous" dataType="float">
			<Value value="NaN" property="missing"/>
		</DataField>
		<DataField name="ovd_features_153" optype="continuous" dataType="float">
			<Value value="NaN" property="missing"/>
		</DataField>
		<DataField name="ovd_features_154" optype="continuous" dataType="float">
			<Value value="NaN" property="missing"/>
		</DataField>
		<DataField name="ovd_features_155" optype="continuous" dataType="float">
			<Value value="NaN" property="missing"/>
		</DataField>
		<DataField name="ovd_features_157" optype="continuous" dataType="float">
			<Value value="NaN" property="missing"/>
		</DataField>
		<DataField name="ovd_features_160" optype="continuous" dataType="float">
			<Value value="NaN" property="missing"/>
		</DataField>
		<DataField name="ovd_features_164" optype="continuous" dataType="float">
			<Value value="NaN" property="missing"/>
		</DataField>
		<DataField name="ovd_features_165" optype="continuous" dataType="float">
			<Value value="NaN" property="missing"/>
		</DataField>
		<DataField name="ovd_features_166" optype="continuous" dataType="float">
			<Value value="NaN" property="missing"/>
		</DataField>
		<DataField name="ovd_features_167" optype="continuous" dataType="float">
			<Value value="NaN" property="missing"/>
		</DataField>
		<DataField name="ovd_features_170" optype="continuous" dataType="float">
			<Value value="NaN" property="missing"/>
		</DataField>
		<DataField name="ovd_features_18" optype="continuous" dataType="float">
			<Value value="NaN" property="missing"/>
		</DataField>
		<DataField name="ovd_features_224" optype="continuous" dataType="float">
			<Value value="NaN" property="missing"/>
		</DataField>
		<DataField name="ovd_features_230" optype="continuous" dataType="float">
			<Value value="NaN" property="missing"/>
		</DataField>
		<DataField name="ovd_features_243" optype="continuous" dataType="float">
			<Value value="NaN" property="missing"/>
		</DataField>
		<DataField name="ovd_features_256" optype="continuous" dataType="float">
			<Value value="NaN" property="missing"/>
		</DataField>
		<DataField name="ovd_features_257" optype="continuous" dataType="float">
			<Value value="NaN" property="missing"/>
		</DataField>
		<DataField name="ovd_features_258" optype="continuous" dataType="float">
			<Value value="NaN" property="missing"/>
		</DataField>
		<DataField name="ovd_features_264" optype="continuous" dataType="float">
			<Value value="NaN" property="missing"/>
		</DataField>
		<DataField name="ovd_features_265" optype="continuous" dataType="float">
			<Value value="NaN" property="missing"/>
		</DataField>
		<DataField name="ovd_features_269" optype="continuous" dataType="float">
			<Value value="NaN" property="missing"/>
		</DataField>
		<DataField name="ovd_features_273" optype="continuous" dataType="float">
			<Value value="NaN" property="missing"/>
		</DataField>
		<DataField name="ovd_features_275" optype="continuous" dataType="float">
			<Value value="NaN" property="missing"/>
		</DataField>
		<DataField name="ovd_features_276" optype="continuous" dataType="float">
			<Value value="NaN" property="missing"/>
		</DataField>
		<DataField name="ovd_features_280" optype="continuous" dataType="float">
			<Value value="NaN" property="missing"/>
		</DataField>
		<DataField name="ovd_features_281" optype="continuous" dataType="float">
			<Value value="NaN" property="missing"/>
		</DataField>
		<DataField name="ovd_features_283" optype="continuous" dataType="float">
			<Value value="NaN" property="missing"/>
		</DataField>
		<DataField name="ovd_features_287" optype="continuous" dataType="float">
			<Value value="NaN" property="missing"/>
		</DataField>
		<DataField name="ovd_features_295" optype="continuous" dataType="float">
			<Value value="NaN" property="missing"/>
		</DataField>
		<DataField name="ovd_features_297" optype="continuous" dataType="float">
			<Value value="NaN" property="missing"/>
		</DataField>
		<DataField name="ovd_features_298" optype="continuous" dataType="float">
			<Value value="NaN" property="missing"/>
		</DataField>
		<DataField name="ovd_features_304" optype="continuous" dataType="float">
			<Value value="NaN" property="missing"/>
		</DataField>
		<DataField name="ovd_features_305" optype="continuous" dataType="float">
			<Value value="NaN" property="missing"/>
		</DataField>
		<DataField name="ovd_features_309" optype="continuous" dataType="float">
			<Value value="NaN" property="missing"/>
		</DataField>
		<DataField name="ovd_features_314" optype="continuous" dataType="float">
			<Value value="NaN" property="missing"/>
		</DataField>
		<DataField name="ovd_features_315" optype="continuous" dataType="float">
			<Value value="NaN" property="missing"/>
		</DataField>
		<DataField name="ovd_features_317" optype="continuous" dataType="float">
			<Value value="NaN" property="missing"/>
		</DataField>
		<DataField name="ovd_features_320" optype="continuous" dataType="float">
			<Value value="NaN" property="missing"/>
		</DataField>
		<DataField name="ovd_features_321" optype="continuous" dataType="float">
			<Value value="NaN" property="missing"/>
		</DataField>
		<DataField name="ovd_features_323" optype="continuous" dataType="float">
			<Value value="NaN" property="missing"/>
		</DataField>
		<DataField name="ovd_features_324" optype="continuous" dataType="float">
			<Value value="NaN" property="missing"/>
		</DataField>
		<DataField name="ovd_features_327" optype="continuous" dataType="float">
			<Value value="NaN" property="missing"/>
		</DataField>
		<DataField name="ovd_features_328" optype="continuous" dataType="float">
			<Value value="NaN" property="missing"/>
		</DataField>
		<DataField name="ovd_features_331" optype="continuous" dataType="float">
			<Value value="NaN" property="missing"/>
		</DataField>
		<DataField name="ovd_features_334" optype="continuous" dataType="float">
			<Value value="NaN" property="missing"/>
		</DataField>
		<DataField name="ovd_features_336" optype="continuous" dataType="float">
			<Value value="NaN" property="missing"/>
		</DataField>
		<DataField name="ovd_features_337" optype="continuous" dataType="float">
			<Value value="NaN" property="missing"/>
		</DataField>
		<DataField name="ovd_features_338" optype="continuous" dataType="float">
			<Value value="NaN" property="missing"/>
		</DataField>
		<DataField name="ovd_features_341" optype="continuous" dataType="float">
			<Value value="NaN" property="missing"/>
		</DataField>
		<DataField name="ovd_features_342" optype="continuous" dataType="float">
			<Value value="NaN" property="missing"/>
		</DataField>
		<DataField name="ovd_features_348" optype="continuous" dataType="float">
			<Value value="NaN" property="missing"/>
		</DataField>
		<DataField name="ovd_features_362" optype="continuous" dataType="float">
			<Value value="NaN" property="missing"/>
		</DataField>
		<DataField name="ovd_features_371" optype="continuous" dataType="float">
			<Value value="NaN" property="missing"/>
		</DataField>
		<DataField name="ovd_features_377" optype="continuous" dataType="float">
			<Value value="NaN" property="missing"/>
		</DataField>
		<DataField name="ovd_features_379" optype="continuous" dataType="float">
			<Value value="NaN" property="missing"/>
		</DataField>
		<DataField name="ovd_features_391" optype="continuous" dataType="float">
			<Value value="NaN" property="missing"/>
		</DataField>
		<DataField name="ovd_features_396" optype="continuous" dataType="float">
			<Value value="NaN" property="missing"/>
		</DataField>
		<DataField name="ovd_features_397" optype="continuous" dataType="float">
			<Value value="NaN" property="missing"/>
		</DataField>
		<DataField name="ovd_features_399" optype="continuous" dataType="float">
			<Value value="NaN" property="missing"/>
		</DataField>
		<DataField name="ovd_features_4" optype="continuous" dataType="float">
			<Value value="NaN" property="missing"/>
		</DataField>
		<DataField name="ovd_features_403" optype="continuous" dataType="float">
			<Value value="NaN" property="missing"/>
		</DataField>
		<DataField name="ovd_features_409" optype="continuous" dataType="float">
			<Value value="NaN" property="missing"/>
		</DataField>
		<DataField name="ovd_features_411" optype="continuous" dataType="float">
			<Value value="NaN" property="missing"/>
		</DataField>
		<DataField name="ovd_features_419" optype="continuous" dataType="float">
			<Value value="NaN" property="missing"/>
		</DataField>
		<DataField name="ovd_features_42" optype="continuous" dataType="float">
			<Value value="NaN" property="missing"/>
		</DataField>
		<DataField name="ovd_features_421" optype="continuous" dataType="float">
			<Value value="NaN" property="missing"/>
		</DataField>
		<DataField name="ovd_features_422" optype="continuous" dataType="float">
			<Value value="NaN" property="missing"/>
		</DataField>
		<DataField name="ovd_features_423" optype="continuous" dataType="float">
			<Value value="NaN" property="missing"/>
		</DataField>
		<DataField name="ovd_features_426" optype="continuous" dataType="float">
			<Value value="NaN" property="missing"/>
		</DataField>
		<DataField name="ovd_features_431" optype="continuous" dataType="float">
			<Value value="NaN" property="missing"/>
		</DataField>
		<DataField name="ovd_features_447" optype="continuous" dataType="float">
			<Value value="NaN" property="missing"/>
		</DataField>
		<DataField name="ovd_features_448" optype="continuous" dataType="float">
			<Value value="NaN" property="missing"/>
		</DataField>
		<DataField name="ovd_features_450" optype="continuous" dataType="float">
			<Value value="NaN" property="missing"/>
		</DataField>
		<DataField name="ovd_features_452" optype="continuous" dataType="float">
			<Value value="NaN" property="missing"/>
		</DataField>
		<DataField name="ovd_features_454" optype="continuous" dataType="float">
			<Value value="NaN" property="missing"/>
		</DataField>
		<DataField name="ovd_features_459" optype="continuous" dataType="float">
			<Value value="NaN" property="missing"/>
		</DataField>
		<DataField name="ovd_features_462" optype="continuous" dataType="float">
			<Value value="NaN" property="missing"/>
		</DataField>
		<DataField name="ovd_features_465" optype="continuous" dataType="float">
			<Value value="NaN" property="missing"/>
		</DataField>
		<DataField name="ovd_features_466" optype="continuous" dataType="float">
			<Value value="NaN" property="missing"/>
		</DataField>
		<DataField name="ovd_features_469" optype="continuous" dataType="float">
			<Value value="NaN" property="missing"/>
		</DataField>
		<DataField name="ovd_features_470" optype="continuous" dataType="float">
			<Value value="NaN" property="missing"/>
		</DataField>
		<DataField name="ovd_features_472" optype="continuous" dataType="float">
			<Value value="NaN" property="missing"/>
		</DataField>
		<DataField name="ovd_features_482" optype="continuous" dataType="float">
			<Value value="NaN" property="missing"/>
		</DataField>
		<DataField name="ovd_features_484" optype="continuous" dataType="float">
			<Value value="NaN" property="missing"/>
		</DataField>
		<DataField name="ovd_features_486" optype="continuous" dataType="float">
			<Value value="NaN" property="missing"/>
		</DataField>
		<DataField name="ovd_features_490" optype="continuous" dataType="float">
			<Value value="NaN" property="missing"/>
		</DataField>
		<DataField name="ovd_features_495" optype="continuous" dataType="float">
			<Value value="NaN" property="missing"/>
		</DataField>
		<DataField name="ovd_features_511" optype="continuous" dataType="float">
			<Value value="NaN" property="missing"/>
		</DataField>
		<DataField name="ovd_features_516" optype="continuous" dataType="float">
			<Value value="NaN" property="missing"/>
		</DataField>
		<DataField name="ovd_features_517" optype="continuous" dataType="float">
			<Value value="NaN" property="missing"/>
		</DataField>
		<DataField name="ovd_features_522" optype="continuous" dataType="float">
			<Value value="NaN" property="missing"/>
		</DataField>
		<DataField name="ovd_features_524" optype="continuous" dataType="float">
			<Value value="NaN" property="missing"/>
		</DataField>
		<DataField name="ovd_features_525" optype="continuous" dataType="float">
			<Value value="NaN" property="missing"/>
		</DataField>
		<DataField name="ovd_features_528" optype="continuous" dataType="float">
			<Value value="NaN" property="missing"/>
		</DataField>
		<DataField name="ovd_features_529" optype="continuous" dataType="float">
			<Value value="NaN" property="missing"/>
		</DataField>
		<DataField name="ovd_features_533" optype="continuous" dataType="float">
			<Value value="NaN" property="missing"/>
		</DataField>
		<DataField name="ovd_features_545" optype="continuous" dataType="float">
			<Value value="NaN" property="missing"/>
		</DataField>
		<DataField name="ovd_features_547" optype="continuous" dataType="float">
			<Value value="NaN" property="missing"/>
		</DataField>
		<DataField name="ovd_features_549" optype="continuous" dataType="float">
			<Value value="NaN" property="missing"/>
		</DataField>
		<DataField name="ovd_features_550" optype="continuous" dataType="float">
			<Value value="NaN" property="missing"/>
		</DataField>
		<DataField name="ovd_features_551" optype="continuous" dataType="float">
			<Value value="NaN" property="missing"/>
		</DataField>
		<DataField name="ovd_features_553" optype="continuous" dataType="float">
			<Value value="NaN" property="missing"/>
		</DataField>
		<DataField name="ovd_features_557" optype="continuous" dataType="float">
			<Value value="NaN" property="missing"/>
		</DataField>
		<DataField name="ovd_features_560" optype="continuous" dataType="float">
			<Value value="NaN" property="missing"/>
		</DataField>
		<DataField name="ovd_features_561" optype="continuous" dataType="float">
			<Value value="NaN" property="missing"/>
		</DataField>
		<DataField name="ovd_features_563" optype="continuous" dataType="float">
			<Value value="NaN" property="missing"/>
		</DataField>
		<DataField name="ovd_features_564" optype="continuous" dataType="float">
			<Value value="NaN" property="missing"/>
		</DataField>
		<DataField name="ovd_features_574" optype="continuous" dataType="float">
			<Value value="NaN" property="missing"/>
		</DataField>
		<DataField name="ovd_features_575" optype="continuous" dataType="float">
			<Value value="NaN" property="missing"/>
		</DataField>
		<DataField name="ovd_features_577" optype="continuous" dataType="float">
			<Value value="NaN" property="missing"/>
		</DataField>
		<DataField name="ovd_features_578" optype="continuous" dataType="float">
			<Value value="NaN" property="missing"/>
		</DataField>
		<DataField name="ovd_features_580" optype="continuous" dataType="float">
			<Value value="NaN" property="missing"/>
		</DataField>
		<DataField name="ovd_features_581" optype="continuous" dataType="float">
			<Value value="NaN" property="missing"/>
		</DataField>
		<DataField name="ovd_features_586" optype="continuous" dataType="float">
			<Value value="NaN" property="missing"/>
		</DataField>
		<DataField name="ovd_features_587" optype="continuous" dataType="float">
			<Value value="NaN" property="missing"/>
		</DataField>
		<DataField name="ovd_features_592" optype="continuous" dataType="float">
			<Value value="NaN" property="missing"/>
		</DataField>
		<DataField name="ovd_features_593" optype="continuous" dataType="float">
			<Value value="NaN" property="missing"/>
		</DataField>
		<DataField name="ovd_features_61" optype="continuous" dataType="float">
			<Value value="NaN" property="missing"/>
		</DataField>
		<DataField name="ovd_features_617" optype="continuous" dataType="float">
			<Value value="NaN" property="missing"/>
		</DataField>
		<DataField name="ovd_features_620" optype="continuous" dataType="float">
			<Value value="NaN" property="missing"/>
		</DataField>
		<DataField name="ovd_features_622" optype="continuous" dataType="float">
			<Value value="NaN" property="missing"/>
		</DataField>
		<DataField name="ovd_features_623" optype="continuous" dataType="float">
			<Value value="NaN" property="missing"/>
		</DataField>
		<DataField name="ovd_features_626" optype="continuous" dataType="float">
			<Value value="NaN" property="missing"/>
		</DataField>
		<DataField name="ovd_features_630" optype="continuous" dataType="float">
			<Value value="NaN" property="missing"/>
		</DataField>
		<DataField name="ovd_features_631" optype="continuous" dataType="float">
			<Value value="NaN" property="missing"/>
		</DataField>
		<DataField name="ovd_features_632" optype="continuous" dataType="float">
			<Value value="NaN" property="missing"/>
		</DataField>
		<DataField name="ovd_features_636" optype="continuous" dataType="float">
			<Value value="NaN" property="missing"/>
		</DataField>
		<DataField name="ovd_features_637" optype="continuous" dataType="float">
			<Value value="NaN" property="missing"/>
		</DataField>
		<DataField name="ovd_features_662" optype="continuous" dataType="float">
			<Value value="NaN" property="missing"/>
		</DataField>
		<DataField name="ovd_features_676" optype="continuous" dataType="float">
			<Value value="NaN" property="missing"/>
		</DataField>
		<DataField name="ovd_features_677" optype="continuous" dataType="float">
			<Value value="NaN" property="missing"/>
		</DataField>
		<DataField name="ovd_features_68" optype="continuous" dataType="float">
			<Value value="NaN" property="missing"/>
		</DataField>
		<DataField name="ovd_features_691" optype="continuous" dataType="float">
			<Value value="NaN" property="missing"/>
		</DataField>
		<DataField name="ovd_features_694" optype="continuous" dataType="float">
			<Value value="NaN" property="missing"/>
		</DataField>
		<DataField name="ovd_features_70" optype="continuous" dataType="float">
			<Value value="NaN" property="missing"/>
		</DataField>
		<DataField name="ovd_features_707" optype="continuous" dataType="float">
			<Value value="NaN" property="missing"/>
		</DataField>
		<DataField name="ovd_features_708" optype="continuous" dataType="float">
			<Value value="NaN" property="missing"/>
		</DataField>
		<DataField name="ovd_features_709" optype="continuous" dataType="float">
			<Value value="NaN" property="missing"/>
		</DataField>
		<DataField name="ovd_features_71" optype="continuous" dataType="float">
			<Value value="NaN" property="missing"/>
		</DataField>
		<DataField name="ovd_features_710" optype="continuous" dataType="float">
			<Value value="NaN" property="missing"/>
		</DataField>
		<DataField name="ovd_features_711" optype="continuous" dataType="float">
			<Value value="NaN" property="missing"/>
		</DataField>
		<DataField name="ovd_features_713" optype="continuous" dataType="float">
			<Value value="NaN" property="missing"/>
		</DataField>
		<DataField name="ovd_features_714" optype="continuous" dataType="float">
			<Value value="NaN" property="missing"/>
		</DataField>
		<DataField name="ovd_features_715" optype="continuous" dataType="float">
			<Value value="NaN" property="missing"/>
		</DataField>
		<DataField name="ovd_features_716" optype="continuous" dataType="float">
			<Value value="NaN" property="missing"/>
		</DataField>
		<DataField name="ovd_features_73" optype="continuous" dataType="float">
			<Value value="NaN" property="missing"/>
		</DataField>
		<DataField name="ovd_features_82" optype="continuous" dataType="float">
			<Value value="NaN" property="missing"/>
		</DataField>
		<DataField name="ovd_features_83" optype="continuous" dataType="float">
			<Value value="NaN" property="missing"/>
		</DataField>
		<DataField name="ovd_features_85" optype="continuous" dataType="float">
			<Value value="NaN" property="missing"/>
		</DataField>
		<DataField name="ovd_features_86" optype="continuous" dataType="float">
			<Value value="NaN" property="missing"/>
		</DataField>
		<DataField name="ovd_features_88" optype="continuous" dataType="float">
			<Value value="NaN" property="missing"/>
		</DataField>
		<DataField name="ovd_features_9" optype="continuous" dataType="float">
			<Value value="NaN" property="missing"/>
		</DataField>
		<DataField name="ovd_features_92" optype="continuous" dataType="float">
			<Value value="NaN" property="missing"/>
		</DataField>
		<DataField name="ovd_features_97" optype="continuous" dataType="float">
			<Value value="NaN" property="missing"/>
		</DataField>
		<DataField name="ovd_features_98" optype="continuous" dataType="float">
			<Value value="NaN" property="missing"/>
		</DataField>
	</DataDictionary>
	<MiningModel functionName="classification" algorithmName="XGBoost (GBTree)" x-mathContext="float">
		<MiningSchema>
			<MiningField name="label" usageType="target"/>
			<MiningField name="cheat_career_xjdk_features_0"/>
			<MiningField name="cheat_career_xjdk_features_1"/>
			<MiningField name="cheat_career_xjdk_features_118"/>
			<MiningField name="cheat_career_xjdk_features_12"/>
			<MiningField name="cheat_career_xjdk_features_14"/>
			<MiningField name="cheat_career_xjdk_features_15"/>
			<MiningField name="cheat_career_xjdk_features_16"/>
			<MiningField name="cheat_career_xjdk_features_18"/>
			<MiningField name="cheat_career_xjdk_features_19"/>
			<MiningField name="cheat_career_xjdk_features_20"/>
			<MiningField name="cheat_career_xjdk_features_21"/>
			<MiningField name="cheat_career_xjdk_features_22"/>
			<MiningField name="cheat_career_xjdk_features_3"/>
			<MiningField name="cheat_career_xjdk_features_30"/>
			<MiningField name="cheat_career_xjdk_features_4"/>
			<MiningField name="cheat_career_xjdk_features_732"/>
			<MiningField name="cheat_career_xjdk_features_8"/>
			<MiningField name="cheat_career_xjdk_features_821"/>
			<MiningField name="cheat_career_xjdk_features_866"/>
			<MiningField name="fp_features_114"/>
			<MiningField name="fp_features_117"/>
			<MiningField name="fp_features_118"/>
			<MiningField name="fp_features_181"/>
			<MiningField name="fp_features_28"/>
			<MiningField name="fp_features_29"/>
			<MiningField name="fp_features_31"/>
			<MiningField name="fp_features_32"/>
			<MiningField name="fp_features_4"/>
			<MiningField name="fp_features_41"/>
			<MiningField name="fp_features_5"/>
			<MiningField name="fp_features_53"/>
			<MiningField name="fp_features_55"/>
			<MiningField name="fp_features_57"/>
			<MiningField name="fp_features_6"/>
			<MiningField name="fp_features_7"/>
			<MiningField name="fp_features_77"/>
			<MiningField name="fp_features_79"/>
			<MiningField name="fp_features_8"/>
			<MiningField name="fp_features_80"/>
			<MiningField name="fp_features_83"/>
			<MiningField name="fp_features_89"/>
			<MiningField name="fp_features_91"/>
			<MiningField name="fp_features_92"/>
			<MiningField name="fp_features_93"/>
			<MiningField name="group_aml_nsf_profile_features_411"/>
			<MiningField name="group_aml_nsf_profile_features_418"/>
			<MiningField name="group_aml_nsf_profile_features_427"/>
			<MiningField name="group_aml_nsf_profile_features_428"/>
			<MiningField name="group_aml_nsf_profile_features_433"/>
			<MiningField name="group_aml_nsf_profile_features_435"/>
			<MiningField name="group_aml_nsf_profile_features_437"/>
			<MiningField name="group_aml_nsf_profile_features_439"/>
			<MiningField name="group_aml_nsf_profile_features_441"/>
			<MiningField name="group_aml_nsf_profile_features_760"/>
			<MiningField name="group_aml_nsf_profile_features_765"/>
			<MiningField name="group_aml_nsf_profile_features_780"/>
			<MiningField name="ovd_features_101"/>
			<MiningField name="ovd_features_105"/>
			<MiningField name="ovd_features_108"/>
			<MiningField name="ovd_features_11"/>
			<MiningField name="ovd_features_113"/>
			<MiningField name="ovd_features_114"/>
			<MiningField name="ovd_features_115"/>
			<MiningField name="ovd_features_12"/>
			<MiningField name="ovd_features_120"/>
			<MiningField name="ovd_features_123"/>
			<MiningField name="ovd_features_127"/>
			<MiningField name="ovd_features_131"/>
			<MiningField name="ovd_features_138"/>
			<MiningField name="ovd_features_139"/>
			<MiningField name="ovd_features_15"/>
			<MiningField name="ovd_features_151"/>
			<MiningField name="ovd_features_152"/>
			<MiningField name="ovd_features_153"/>
			<MiningField name="ovd_features_154"/>
			<MiningField name="ovd_features_155"/>
			<MiningField name="ovd_features_157"/>
			<MiningField name="ovd_features_160"/>
			<MiningField name="ovd_features_164"/>
			<MiningField name="ovd_features_165"/>
			<MiningField name="ovd_features_166"/>
			<MiningField name="ovd_features_167"/>
			<MiningField name="ovd_features_170"/>
			<MiningField name="ovd_features_18"/>
			<MiningField name="ovd_features_224"/>
			<MiningField name="ovd_features_230"/>
			<MiningField name="ovd_features_243"/>
			<MiningField name="ovd_features_256"/>
			<MiningField name="ovd_features_257"/>
			<MiningField name="ovd_features_258"/>
			<MiningField name="ovd_features_264"/>
			<MiningField name="ovd_features_265"/>
			<MiningField name="ovd_features_269"/>
			<MiningField name="ovd_features_273"/>
			<MiningField name="ovd_features_275"/>
			<MiningField name="ovd_features_276"/>
			<MiningField name="ovd_features_280"/>
			<MiningField name="ovd_features_281"/>
			<MiningField name="ovd_features_283"/>
			<MiningField name="ovd_features_287"/>
			<MiningField name="ovd_features_295"/>
			<MiningField name="ovd_features_297"/>
			<MiningField name="ovd_features_298"/>
			<MiningField name="ovd_features_304"/>
			<MiningField name="ovd_features_305"/>
			<MiningField name="ovd_features_309"/>
			<MiningField name="ovd_features_314"/>
			<MiningField name="ovd_features_315"/>
			<MiningField name="ovd_features_317"/>
			<MiningField name="ovd_features_320"/>
			<MiningField name="ovd_features_321"/>
			<MiningField name="ovd_features_323"/>
			<MiningField name="ovd_features_324"/>
			<MiningField name="ovd_features_327"/>
			<MiningField name="ovd_features_328"/>
			<MiningField name="ovd_features_331"/>
			<MiningField name="ovd_features_334"/>
			<MiningField name="ovd_features_336"/>
			<MiningField name="ovd_features_337"/>
			<MiningField name="ovd_features_338"/>
			<MiningField name="ovd_features_341"/>
			<MiningField name="ovd_features_342"/>
			<MiningField name="ovd_features_348"/>
			<MiningField name="ovd_features_362"/>
			<MiningField name="ovd_features_371"/>
			<MiningField name="ovd_features_377"/>
			<MiningField name="ovd_features_379"/>
			<MiningField name="ovd_features_391"/>
			<MiningField name="ovd_features_396"/>
			<MiningField name="ovd_features_397"/>
			<MiningField name="ovd_features_399"/>
			<MiningField name="ovd_features_4"/>
			<MiningField name="ovd_features_403"/>
			<MiningField name="ovd_features_409"/>
			<MiningField name="ovd_features_411"/>
			<MiningField name="ovd_features_419"/>
			<MiningField name="ovd_features_42"/>
			<MiningField name="ovd_features_421"/>
			<MiningField name="ovd_features_422"/>
			<MiningField name="ovd_features_423"/>
			<MiningField name="ovd_features_426"/>
			<MiningField name="ovd_features_431"/>
			<MiningField name="ovd_features_447"/>
			<MiningField name="ovd_features_448"/>
			<MiningField name="ovd_features_450"/>
			<MiningField name="ovd_features_452"/>
			<MiningField name="ovd_features_454"/>
			<MiningField name="ovd_features_459"/>
			<MiningField name="ovd_features_462"/>
			<MiningField name="ovd_features_465"/>
			<MiningField name="ovd_features_466"/>
			<MiningField name="ovd_features_469"/>
			<MiningField name="ovd_features_470"/>
			<MiningField name="ovd_features_472"/>
			<MiningField name="ovd_features_482"/>
			<MiningField name="ovd_features_484"/>
			<MiningField name="ovd_features_486"/>
			<MiningField name="ovd_features_490"/>
			<MiningField name="ovd_features_495"/>
			<MiningField name="ovd_features_511"/>
			<MiningField name="ovd_features_516"/>
			<MiningField name="ovd_features_517"/>
			<MiningField name="ovd_features_522"/>
			<MiningField name="ovd_features_524"/>
			<MiningField name="ovd_features_525"/>
			<MiningField name="ovd_features_528"/>
			<MiningField name="ovd_features_529"/>
			<MiningField name="ovd_features_533"/>
			<MiningField name="ovd_features_545"/>
			<MiningField name="ovd_features_547"/>
			<MiningField name="ovd_features_549"/>
			<MiningField name="ovd_features_550"/>
			<MiningField name="ovd_features_551"/>
			<MiningField name="ovd_features_553"/>
			<MiningField name="ovd_features_557"/>
			<MiningField name="ovd_features_560"/>
			<MiningField name="ovd_features_561"/>
			<MiningField name="ovd_features_563"/>
			<MiningField name="ovd_features_564"/>
			<MiningField name="ovd_features_574"/>
			<MiningField name="ovd_features_575"/>
			<MiningField name="ovd_features_577"/>
			<MiningField name="ovd_features_578"/>
			<MiningField name="ovd_features_580"/>
			<MiningField name="ovd_features_581"/>
			<MiningField name="ovd_features_586"/>
			<MiningField name="ovd_features_587"/>
			<MiningField name="ovd_features_592"/>
			<MiningField name="ovd_features_593"/>
			<MiningField name="ovd_features_61"/>
			<MiningField name="ovd_features_617"/>
			<MiningField name="ovd_features_620"/>
			<MiningField name="ovd_features_622"/>
			<MiningField name="ovd_features_623"/>
			<MiningField name="ovd_features_626"/>
			<MiningField name="ovd_features_630"/>
			<MiningField name="ovd_features_631"/>
			<MiningField name="ovd_features_632"/>
			<MiningField name="ovd_features_636"/>
			<MiningField name="ovd_features_637"/>
			<MiningField name="ovd_features_662"/>
			<MiningField name="ovd_features_676"/>
			<MiningField name="ovd_features_677"/>
			<MiningField name="ovd_features_68"/>
			<MiningField name="ovd_features_691"/>
			<MiningField name="ovd_features_694"/>
			<MiningField name="ovd_features_70"/>
			<MiningField name="ovd_features_707"/>
			<MiningField name="ovd_features_708"/>
			<MiningField name="ovd_features_709"/>
			<MiningField name="ovd_features_71"/>
			<MiningField name="ovd_features_710"/>
			<MiningField name="ovd_features_711"/>
			<MiningField name="ovd_features_713"/>
			<MiningField name="ovd_features_714"/>
			<MiningField name="ovd_features_715"/>
			<MiningField name="ovd_features_716"/>
			<MiningField name="ovd_features_73"/>
			<MiningField name="ovd_features_82"/>
			<MiningField name="ovd_features_83"/>
			<MiningField name="ovd_features_85"/>
			<MiningField name="ovd_features_86"/>
			<MiningField name="ovd_features_88"/>
			<MiningField name="ovd_features_9"/>
			<MiningField name="ovd_features_92"/>
			<MiningField name="ovd_features_97"/>
			<MiningField name="ovd_features_98"/>
		</MiningSchema>
		<Segmentation multipleModelMethod="modelChain" missingPredictionTreatment="returnMissing">
			<Segment id="1">
				<True/>
				<MiningModel functionName="regression" x-mathContext="float">
					<MiningSchema>
						<MiningField name="cheat_career_xjdk_features_0"/>
						<MiningField name="cheat_career_xjdk_features_1"/>
						<MiningField name="cheat_career_xjdk_features_118"/>
						<MiningField name="cheat_career_xjdk_features_12"/>
						<MiningField name="cheat_career_xjdk_features_14"/>
						<MiningField name="cheat_career_xjdk_features_15"/>
						<MiningField name="cheat_career_xjdk_features_16"/>
						<MiningField name="cheat_career_xjdk_features_18"/>
						<MiningField name="cheat_career_xjdk_features_19"/>
						<MiningField name="cheat_career_xjdk_features_20"/>
						<MiningField name="cheat_career_xjdk_features_21"/>
						<MiningField name="cheat_career_xjdk_features_22"/>
						<MiningField name="cheat_career_xjdk_features_3"/>
						<MiningField name="cheat_career_xjdk_features_30"/>
						<MiningField name="cheat_career_xjdk_features_4"/>
						<MiningField name="cheat_career_xjdk_features_732"/>
						<MiningField name="cheat_career_xjdk_features_8"/>
						<MiningField name="cheat_career_xjdk_features_821"/>
						<MiningField name="cheat_career_xjdk_features_866"/>
						<MiningField name="fp_features_114"/>
						<MiningField name="fp_features_117"/>
						<MiningField name="fp_features_118"/>
						<MiningField name="fp_features_181"/>
						<MiningField name="fp_features_28"/>
						<MiningField name="fp_features_29"/>
						<MiningField name="fp_features_31"/>
						<MiningField name="fp_features_32"/>
						<MiningField name="fp_features_4"/>
						<MiningField name="fp_features_41"/>
						<MiningField name="fp_features_5"/>
						<MiningField name="fp_features_53"/>
						<MiningField name="fp_features_55"/>
						<MiningField name="fp_features_57"/>
						<MiningField name="fp_features_6"/>
						<MiningField name="fp_features_7"/>
						<MiningField name="fp_features_77"/>
						<MiningField name="fp_features_79"/>
						<MiningField name="fp_features_8"/>
						<MiningField name="fp_features_80"/>
						<MiningField name="fp_features_83"/>
						<MiningField name="fp_features_89"/>
						<MiningField name="fp_features_91"/>
						<MiningField name="fp_features_92"/>
						<MiningField name="fp_features_93"/>
						<MiningField name="group_aml_nsf_profile_features_411"/>
						<MiningField name="group_aml_nsf_profile_features_418"/>
						<MiningField name="group_aml_nsf_profile_features_427"/>
						<MiningField name="group_aml_nsf_profile_features_428"/>
						<MiningField name="group_aml_nsf_profile_features_433"/>
						<MiningField name="group_aml_nsf_profile_features_435"/>
						<MiningField name="group_aml_nsf_profile_features_437"/>
						<MiningField name="group_aml_nsf_profile_features_439"/>
						<MiningField name="group_aml_nsf_profile_features_441"/>
						<MiningField name="group_aml_nsf_profile_features_760"/>
						<MiningField name="group_aml_nsf_profile_features_765"/>
						<MiningField name="group_aml_nsf_profile_features_780"/>
						<MiningField name="ovd_features_101"/>
						<MiningField name="ovd_features_105"/>
						<MiningField name="ovd_features_108"/>
						<MiningField name="ovd_features_11"/>
						<MiningField name="ovd_features_113"/>
						<MiningField name="ovd_features_114"/>
						<MiningField name="ovd_features_115"/>
						<MiningField name="ovd_features_12"/>
						<MiningField name="ovd_features_120"/>
						<MiningField name="ovd_features_123"/>
						<MiningField name="ovd_features_127"/>
						<MiningField name="ovd_features_131"/>
						<MiningField name="ovd_features_138"/>
						<MiningField name="ovd_features_139"/>
						<MiningField name="ovd_features_15"/>
						<MiningField name="ovd_features_151"/>
						<MiningField name="ovd_features_152"/>
						<MiningField name="ovd_features_153"/>
						<MiningField name="ovd_features_154"/>
						<MiningField name="ovd_features_155"/>
						<MiningField name="ovd_features_157"/>
						<MiningField name="ovd_features_160"/>
						<MiningField name="ovd_features_164"/>
						<MiningField name="ovd_features_165"/>
						<MiningField name="ovd_features_166"/>
						<MiningField name="ovd_features_167"/>
						<MiningField name="ovd_features_170"/>
						<MiningField name="ovd_features_18"/>
						<MiningField name="ovd_features_224"/>
						<MiningField name="ovd_features_230"/>
						<MiningField name="ovd_features_243"/>
						<MiningField name="ovd_features_256"/>
						<MiningField name="ovd_features_257"/>
						<MiningField name="ovd_features_258"/>
						<MiningField name="ovd_features_264"/>
						<MiningField name="ovd_features_265"/>
						<MiningField name="ovd_features_269"/>
						<MiningField name="ovd_features_273"/>
						<MiningField name="ovd_features_275"/>
						<MiningField name="ovd_features_276"/>
						<MiningField name="ovd_features_280"/>
						<MiningField name="ovd_features_281"/>
						<MiningField name="ovd_features_283"/>
						<MiningField name="ovd_features_287"/>
						<MiningField name="ovd_features_295"/>
						<MiningField name="ovd_features_297"/>
						<MiningField name="ovd_features_298"/>
						<MiningField name="ovd_features_304"/>
						<MiningField name="ovd_features_305"/>
						<MiningField name="ovd_features_309"/>
						<MiningField name="ovd_features_314"/>
						<MiningField name="ovd_features_315"/>
						<MiningField name="ovd_features_317"/>
						<MiningField name="ovd_features_320"/>
						<MiningField name="ovd_features_321"/>
						<MiningField name="ovd_features_323"/>
						<MiningField name="ovd_features_324"/>
						<MiningField name="ovd_features_327"/>
						<MiningField name="ovd_features_328"/>
						<MiningField name="ovd_features_331"/>
						<MiningField name="ovd_features_334"/>
						<MiningField name="ovd_features_336"/>
						<MiningField name="ovd_features_337"/>
						<MiningField name="ovd_features_338"/>
						<MiningField name="ovd_features_341"/>
						<MiningField name="ovd_features_342"/>
						<MiningField name="ovd_features_348"/>
						<MiningField name="ovd_features_362"/>
						<MiningField name="ovd_features_371"/>
						<MiningField name="ovd_features_377"/>
						<MiningField name="ovd_features_379"/>
						<MiningField name="ovd_features_391"/>
						<MiningField name="ovd_features_396"/>
						<MiningField name="ovd_features_397"/>
						<MiningField name="ovd_features_399"/>
						<MiningField name="ovd_features_4"/>
						<MiningField name="ovd_features_403"/>
						<MiningField name="ovd_features_409"/>
						<MiningField name="ovd_features_411"/>
						<MiningField name="ovd_features_419"/>
						<MiningField name="ovd_features_42"/>
						<MiningField name="ovd_features_421"/>
						<MiningField name="ovd_features_422"/>
						<MiningField name="ovd_features_423"/>
						<MiningField name="ovd_features_426"/>
						<MiningField name="ovd_features_431"/>
						<MiningField name="ovd_features_447"/>
						<MiningField name="ovd_features_448"/>
						<MiningField name="ovd_features_450"/>
						<MiningField name="ovd_features_452"/>
						<MiningField name="ovd_features_454"/>
						<MiningField name="ovd_features_459"/>
						<MiningField name="ovd_features_462"/>
						<MiningField name="ovd_features_465"/>
						<MiningField name="ovd_features_466"/>
						<MiningField name="ovd_features_469"/>
						<MiningField name="ovd_features_470"/>
						<MiningField name="ovd_features_472"/>
						<MiningField name="ovd_features_482"/>
						<MiningField name="ovd_features_484"/>
						<MiningField name="ovd_features_486"/>
						<MiningField name="ovd_features_490"/>
						<MiningField name="ovd_features_495"/>
						<MiningField name="ovd_features_511"/>
						<MiningField name="ovd_features_516"/>
						<MiningField name="ovd_features_517"/>
						<MiningField name="ovd_features_522"/>
						<MiningField name="ovd_features_524"/>
						<MiningField name="ovd_features_525"/>
						<MiningField name="ovd_features_528"/>
						<MiningField name="ovd_features_529"/>
						<MiningField name="ovd_features_533"/>
						<MiningField name="ovd_features_545"/>
						<MiningField name="ovd_features_547"/>
						<MiningField name="ovd_features_549"/>
						<MiningField name="ovd_features_550"/>
						<MiningField name="ovd_features_551"/>
						<MiningField name="ovd_features_553"/>
						<MiningField name="ovd_features_557"/>
						<MiningField name="ovd_features_560"/>
						<MiningField name="ovd_features_561"/>
						<MiningField name="ovd_features_563"/>
						<MiningField name="ovd_features_564"/>
						<MiningField name="ovd_features_574"/>
						<MiningField name="ovd_features_575"/>
						<MiningField name="ovd_features_577"/>
						<MiningField name="ovd_features_578"/>
						<MiningField name="ovd_features_580"/>
						<MiningField name="ovd_features_581"/>
						<MiningField name="ovd_features_586"/>
						<MiningField name="ovd_features_587"/>
						<MiningField name="ovd_features_592"/>
						<MiningField name="ovd_features_593"/>
						<MiningField name="ovd_features_61"/>
						<MiningField name="ovd_features_617"/>
						<MiningField name="ovd_features_620"/>
						<MiningField name="ovd_features_622"/>
						<MiningField name="ovd_features_623"/>
						<MiningField name="ovd_features_626"/>
						<MiningField name="ovd_features_630"/>
						<MiningField name="ovd_features_631"/>
						<MiningField name="ovd_features_632"/>
						<MiningField name="ovd_features_636"/>
						<MiningField name="ovd_features_637"/>
						<MiningField name="ovd_features_662"/>
						<MiningField name="ovd_features_676"/>
						<MiningField name="ovd_features_677"/>
						<MiningField name="ovd_features_68"/>
						<MiningField name="ovd_features_691"/>
						<MiningField name="ovd_features_694"/>
						<MiningField name="ovd_features_70"/>
						<MiningField name="ovd_features_707"/>
						<MiningField name="ovd_features_708"/>
						<MiningField name="ovd_features_709"/>
						<MiningField name="ovd_features_71"/>
						<MiningField name="ovd_features_710"/>
						<MiningField name="ovd_features_711"/>
						<MiningField name="ovd_features_713"/>
						<MiningField name="ovd_features_714"/>
						<MiningField name="ovd_features_715"/>
						<MiningField name="ovd_features_716"/>
						<MiningField name="ovd_features_73"/>
						<MiningField name="ovd_features_82"/>
						<MiningField name="ovd_features_83"/>
						<MiningField name="ovd_features_85"/>
						<MiningField name="ovd_features_86"/>
						<MiningField name="ovd_features_88"/>
						<MiningField name="ovd_features_9"/>
						<MiningField name="ovd_features_92"/>
						<MiningField name="ovd_features_97"/>
						<MiningField name="ovd_features_98"/>
					</MiningSchema>
					<Output>
						<OutputField name="xgbValue" optype="continuous" dataType="float" isFinalResult="false"/>
					</Output>
					<Segmentation multipleModelMethod="sum" missingPredictionTreatment="returnMissing">
						<Segment id="1">
							<True/>
							<TreeModel functionName="regression" noTrueChildStrategy="returnLastPrediction" x-mathContext="float">
								<MiningSchema>
									<MiningField name="cheat_career_xjdk_features_732"/>
									<MiningField name="fp_features_4"/>
									<MiningField name="fp_features_7"/>
									<MiningField name="fp_features_89"/>
									<MiningField name="group_aml_nsf_profile_features_411"/>
								</MiningSchema>
								<Node score="-0.11543326790328405">
									<True/>
									<Node score="0.07538148609671595">
										<SimplePredicate field="fp_features_7" operator="greaterOrEqual" value="6.5"/>
										<Node score="0.16154582609671594">
											<SimplePredicate field="fp_features_89" operator="greaterOrEqual" value="20.529999"/>
											<Node score="-0.014032333903284056">
												<SimplePredicate field="cheat_career_xjdk_features_732" operator="greaterOrEqual" value="10041.385"/>
											</Node>
										</Node>
										<Node score="0.14533275609671592">
											<SimplePredicate field="fp_features_4" operator="greaterOrEqual" value="22.5"/>
										</Node>
									</Node>
									<Node score="-0.015475798203284057">
										<SimplePredicate field="fp_features_4" operator="greaterOrEqual" value="-49989.5"/>
										<Node score="0.14286540609671594">
											<SimplePredicate field="fp_features_4" operator="greaterOrEqual" value="11.5"/>
										</Node>
									</Node>
									<Node score="0.08439698609671595">
										<SimplePredicate field="group_aml_nsf_profile_features_411" operator="greaterOrEqual" value="0.07514825"/>
									</Node>
								</Node>
							</TreeModel>
						</Segment>
						<Segment id="2">
							<True/>
							<TreeModel functionName="regression" noTrueChildStrategy="returnLastPrediction" x-mathContext="float">
								<MiningSchema>
									<MiningField name="fp_features_32"/>
									<MiningField name="fp_features_7"/>
									<MiningField name="fp_features_8"/>
									<MiningField name="fp_features_93"/>
									<MiningField name="group_aml_nsf_profile_features_441"/>
									<MiningField name="ovd_features_165"/>
									<MiningField name="ovd_features_397"/>
								</MiningSchema>
								<Node score="-0.04962396990328406">
									<True/>
									<Node score="0.059540696096715945">
										<SimplePredicate field="fp_features_7" operator="greaterOrEqual" value="6.5"/>
										<Node score="0.14578218609671592">
											<SimplePredicate field="fp_features_93" operator="greaterOrEqual" value="0.070802"/>
											<Node score="-0.014032333903284056">
												<SimplePredicate field="ovd_features_397" operator="greaterOrEqual" value="2.6875"/>
											</Node>
										</Node>
										<Node score="0.11397518609671596">
											<SimplePredicate field="fp_features_8" operator="greaterOrEqual" value="3.5"/>
										</Node>
									</Node>
									<Node score="-0.12352652390328406">
										<SimplePredicate field="ovd_features_165" operator="greaterOrEqual" value="42.5"/>
										<Node score="0.03643048609671594">
											<SimplePredicate field="fp_features_32" operator="greaterOrEqual" value="99.990005"/>
										</Node>
									</Node>
									<Node score="0.043527462096715944">
										<SimplePredicate field="group_aml_nsf_profile_features_441" operator="greaterOrEqual" value="0.078593664"/>
									</Node>
								</Node>
							</TreeModel>
						</Segment>
						<Segment id="3">
							<True/>
							<TreeModel functionName="regression" noTrueChildStrategy="returnLastPrediction" x-mathContext="float">
								<MiningSchema>
									<MiningField name="cheat_career_xjdk_features_732"/>
									<MiningField name="fp_features_4"/>
									<MiningField name="fp_features_7"/>
									<MiningField name="fp_features_89"/>
									<MiningField name="group_aml_nsf_profile_features_411"/>
									<MiningField name="group_aml_nsf_profile_features_441"/>
								</MiningSchema>
								<Node score="-0.10150663390328406">
									<True/>
									<Node score="0.047231536096715945">
										<SimplePredicate field="fp_features_7" operator="greaterOrEqual" value="6.5"/>
										<Node score="0.13270661609671594">
											<SimplePredicate field="fp_features_89" operator="greaterOrEqual" value="18.89"/>
											<Node score="-0.014032333903284056">
												<SimplePredicate field="cheat_career_xjdk_features_732" operator="greaterOrEqual" value="11204.8"/>
											</Node>
										</Node>
										<Node score="0.10260264609671595">
											<SimplePredicate field="group_aml_nsf_profile_features_441" operator="greaterOrEqual" value="0.078593664"/>
										</Node>
									</Node>
									<Node score="-0.010693859903284055">
										<SimplePredicate field="fp_features_4" operator="greaterOrEqual" value="-49989.5"/>
										<Node score="0.13055711609671594">
											<SimplePredicate field="fp_features_4" operator="greaterOrEqual" value="17.0"/>
										</Node>
									</Node>
									<Node score="0.07133295609671594">
										<SimplePredicate field="group_aml_nsf_profile_features_411" operator="greaterOrEqual" value="0.30195183"/>
									</Node>
								</Node>
							</TreeModel>
						</Segment>
						<Segment id="4">
							<True/>
							<TreeModel functionName="regression" noTrueChildStrategy="returnLastPrediction" x-mathContext="float">
								<MiningSchema>
									<MiningField name="cheat_career_xjdk_features_732"/>
									<MiningField name="fp_features_4"/>
									<MiningField name="fp_features_7"/>
									<MiningField name="fp_features_89"/>
									<MiningField name="group_aml_nsf_profile_features_411"/>
									<MiningField name="ovd_features_305"/>
								</MiningSchema>
								<Node score="-0.09348227790328405">
									<True/>
									<Node score="0.07931807609671594">
										<SimplePredicate field="fp_features_7" operator="greaterOrEqual" value="6.5"/>
										<Node score="0.12359993609671595">
											<SimplePredicate field="fp_features_89" operator="greaterOrEqual" value="19.43"/>
											<Node score="-0.014032333903284056">
												<SimplePredicate field="cheat_career_xjdk_features_732" operator="greaterOrEqual" value="6712.0596"/>
											</Node>
										</Node>
										<Node score="-0.007571570903284057">
											<SimplePredicate field="ovd_features_305" operator="greaterOrEqual" value="76.5"/>
										</Node>
									</Node>
									<Node score="-0.011822355303284057">
										<SimplePredicate field="fp_features_4" operator="greaterOrEqual" value="-49989.5"/>
										<Node score="0.12148763609671594">
											<SimplePredicate field="fp_features_4" operator="greaterOrEqual" value="11.5"/>
										</Node>
									</Node>
									<Node score="0.06378729609671595">
										<SimplePredicate field="group_aml_nsf_profile_features_411" operator="greaterOrEqual" value="0.07514825"/>
									</Node>
								</Node>
							</TreeModel>
						</Segment>
						<Segment id="5">
							<True/>
							<TreeModel functionName="regression" noTrueChildStrategy="returnLastPrediction" x-mathContext="float">
								<MiningSchema>
									<MiningField name="fp_features_32"/>
									<MiningField name="fp_features_7"/>
									<MiningField name="group_aml_nsf_profile_features_760"/>
									<MiningField name="ovd_features_165"/>
									<MiningField name="ovd_features_342"/>
									<MiningField name="ovd_features_486"/>
								</MiningSchema>
								<Node score="-0.022658653403284056">
									<True/>
									<Node score="0.06617312609671595">
										<SimplePredicate field="fp_features_7" operator="greaterOrEqual" value="6.5"/>
										<Node score="0.11218272609671594">
											<SimplePredicate field="fp_features_32" operator="greaterOrEqual" value="329.315"/>
											<Node score="-0.006320944903284056">
												<SimplePredicate field="group_aml_nsf_profile_features_760" operator="greaterOrEqual" value="3.5"/>
											</Node>
										</Node>
										<Node score="-0.014032333903284056">
											<SimplePredicate field="group_aml_nsf_profile_features_760" operator="greaterOrEqual" value="2.5"/>
										</Node>
									</Node>
									<Node score="-0.10894664390328405">
										<SimplePredicate field="ovd_features_165" operator="greaterOrEqual" value="42.5"/>
										<Node score="0.007570611096715942">
											<SimplePredicate field="ovd_features_486" operator="greaterOrEqual" value="3708.3164"/>
										</Node>
									</Node>
									<Node score="0.10786643609671595">
										<SimplePredicate field="ovd_features_342" operator="greaterOrEqual" value="-49989.5"/>
									</Node>
								</Node>
							</TreeModel>
						</Segment>
						<Segment id="6">
							<True/>
							<TreeModel functionName="regression" noTrueChildStrategy="returnLastPrediction" x-mathContext="float">
								<MiningSchema>
									<MiningField name="fp_features_114"/>
									<MiningField name="fp_features_8"/>
									<MiningField name="group_aml_nsf_profile_features_441"/>
									<MiningField name="group_aml_nsf_profile_features_760"/>
									<MiningField name="ovd_features_165"/>
									<MiningField name="ovd_features_315"/>
									<MiningField name="ovd_features_637"/>
								</MiningSchema>
								<Node score="-0.03780483990328405">
									<True/>
									<Node score="0.10026558609671594">
										<SimplePredicate field="fp_features_8" operator="greaterOrEqual" value="1.5"/>
										<Node score="-0.014032333903284056">
											<SimplePredicate field="group_aml_nsf_profile_features_760" operator="greaterOrEqual" value="2.5"/>
											<Node score="0.07191239609671594">
												<SimplePredicate field="fp_features_114" operator="greaterOrEqual" value="-49989.5"/>
											</Node>
										</Node>
										<Node score="-0.014032333903284056">
											<SimplePredicate field="ovd_features_315" operator="greaterOrEqual" value="9031.615"/>
										</Node>
									</Node>
									<Node score="-0.11618799390328405">
										<SimplePredicate field="ovd_features_165" operator="greaterOrEqual" value="43.5"/>
										<Node score="-0.039008521903284056">
											<SimplePredicate field="ovd_features_637" operator="greaterOrEqual" value="1.5"/>
										</Node>
									</Node>
									<Node score="0.041161576096715946">
										<SimplePredicate field="group_aml_nsf_profile_features_441" operator="greaterOrEqual" value="0.078593664"/>
									</Node>
								</Node>
							</TreeModel>
						</Segment>
						<Segment id="7">
							<True/>
							<TreeModel functionName="regression" noTrueChildStrategy="returnLastPrediction" x-mathContext="float">
								<MiningSchema>
									<MiningField name="cheat_career_xjdk_features_20"/>
									<MiningField name="cheat_career_xjdk_features_3"/>
									<MiningField name="fp_features_32"/>
									<MiningField name="fp_features_89"/>
									<MiningField name="group_aml_nsf_profile_features_760"/>
									<MiningField name="ovd_features_127"/>
									<MiningField name="ovd_features_157"/>
								</MiningSchema>
								<Node score="-0.08756151390328405">
									<True/>
									<Node score="0.09849601609671595">
										<SimplePredicate field="fp_features_32" operator="greaterOrEqual" value="374.55"/>
										<Node score="-0.016778630203284055">
											<SimplePredicate field="group_aml_nsf_profile_features_760" operator="greaterOrEqual" value="3.5"/>
											<Node score="0.03317354609671594">
												<SimplePredicate field="fp_features_89" operator="greaterOrEqual" value="21453.5"/>
											</Node>
										</Node>
										<Node score="-0.014032333903284056">
											<SimplePredicate field="cheat_career_xjdk_features_3" operator="greaterOrEqual" value="0.14405034"/>
										</Node>
									</Node>
									<Node score="0.04485140009671594">
										<SimplePredicate field="cheat_career_xjdk_features_20" operator="greaterOrEqual" value="0.2821254"/>
										<Node score="-0.013810485893284057">
											<SimplePredicate field="ovd_features_127" operator="greaterOrEqual" value="0.5"/>
										</Node>
									</Node>
									<Node score="-0.015179188203284056">
										<SimplePredicate field="ovd_features_157" operator="greaterOrEqual" value="0.01710735"/>
									</Node>
								</Node>
							</TreeModel>
						</Segment>
						<Segment id="8">
							<True/>
							<TreeModel functionName="regression" noTrueChildStrategy="returnLastPrediction" x-mathContext="float">
								<MiningSchema>
									<MiningField name="cheat_career_xjdk_features_14"/>
									<MiningField name="fp_features_114"/>
									<MiningField name="fp_features_32"/>
									<MiningField name="fp_features_7"/>
									<MiningField name="group_aml_nsf_profile_features_411"/>
									<MiningField name="group_aml_nsf_profile_features_441"/>
									<MiningField name="ovd_features_281"/>
								</MiningSchema>
								<Node score="-0.05634772390328406">
									<True/>
									<Node score="0.001565158096715943">
										<SimplePredicate field="fp_features_7" operator="greaterOrEqual" value="13.5"/>
										<Node score="0.09625414009671594">
											<SimplePredicate field="fp_features_114" operator="greaterOrEqual" value="-49989.5"/>
											<Node score="-0.014032333903284056">
												<SimplePredicate field="ovd_features_281" operator="greaterOrEqual" value="26.0"/>
											</Node>
										</Node>
										<Node score="0.06547762609671595">
											<SimplePredicate field="group_aml_nsf_profile_features_441" operator="greaterOrEqual" value="-0.35257953"/>
										</Node>
									</Node>
									<Node score="0.07663735009671595">
										<SimplePredicate field="group_aml_nsf_profile_features_411" operator="greaterOrEqual" value="0.07514825"/>
										<Node score="-0.014032333903284056">
											<SimplePredicate field="cheat_career_xjdk_features_14" operator="greaterOrEqual" value="0.079154745"/>
										</Node>
									</Node>
									<Node score="0.07649021609671594">
										<SimplePredicate field="fp_features_32" operator="greaterOrEqual" value="989.0"/>
									</Node>
								</Node>
							</TreeModel>
						</Segment>
						<Segment id="9">
							<True/>
							<TreeModel functionName="regression" noTrueChildStrategy="returnLastPrediction" x-mathContext="float">
								<MiningSchema>
									<MiningField name="fp_features_114"/>
									<MiningField name="fp_features_4"/>
									<MiningField name="fp_features_8"/>
									<MiningField name="group_aml_nsf_profile_features_411"/>
									<MiningField name="group_aml_nsf_profile_features_441"/>
									<MiningField name="ovd_features_321"/>
									<MiningField name="ovd_features_61"/>
								</MiningSchema>
								<Node score="-0.07363214690328405">
									<True/>
									<Node score="0.09151038609671595">
										<SimplePredicate field="fp_features_114" operator="greaterOrEqual" value="-49989.5"/>
										<Node score="-0.03398656990328405">
											<SimplePredicate field="ovd_features_321" operator="greaterOrEqual" value="31.5"/>
											<Node score="-0.014032333903284056">
												<SimplePredicate field="fp_features_8" operator="greaterOrEqual" value="1.5"/>
											</Node>
										</Node>
										<Node score="-0.014032333903284056">
											<SimplePredicate field="ovd_features_61" operator="greaterOrEqual" value="49992.492"/>
										</Node>
									</Node>
									<Node score="-0.031405023903284056">
										<SimplePredicate field="fp_features_4" operator="greaterOrEqual" value="-49989.5"/>
										<Node score="0.04075979809671594">
											<SimplePredicate field="group_aml_nsf_profile_features_441" operator="greaterOrEqual" value="-0.35257953"/>
										</Node>
									</Node>
									<Node score="0.04838160809671595">
										<SimplePredicate field="group_aml_nsf_profile_features_411" operator="greaterOrEqual" value="0.07514825"/>
									</Node>
								</Node>
							</TreeModel>
						</Segment>
						<Segment id="10">
							<True/>
							<TreeModel functionName="regression" noTrueChildStrategy="returnLastPrediction" x-mathContext="float">
								<MiningSchema>
									<MiningField name="cheat_career_xjdk_features_20"/>
									<MiningField name="fp_features_8"/>
									<MiningField name="fp_features_92"/>
									<MiningField name="group_aml_nsf_profile_features_441"/>
									<MiningField name="ovd_features_157"/>
									<MiningField name="ovd_features_315"/>
									<MiningField name="ovd_features_61"/>
								</MiningSchema>
								<Node score="-0.06929672890328406">
									<True/>
									<Node score="0.05795335609671595">
										<SimplePredicate field="fp_features_8" operator="greaterOrEqual" value="1.5"/>
										<Node score="0.09736105109671594">
											<SimplePredicate field="fp_features_92" operator="greaterOrEqual" value="0.39993644"/>
											<Node score="-0.014032333903284056">
												<SimplePredicate field="ovd_features_61" operator="greaterOrEqual" value="21428.25"/>
											</Node>
										</Node>
										<Node score="-0.014032333903284056">
											<SimplePredicate field="ovd_features_315" operator="greaterOrEqual" value="1702.03"/>
										</Node>
									</Node>
									<Node score="-0.008861694903284055">
										<SimplePredicate field="cheat_career_xjdk_features_20" operator="greaterOrEqual" value="0.3774526"/>
										<Node score="0.05199498609671595">
											<SimplePredicate field="group_aml_nsf_profile_features_441" operator="greaterOrEqual" value="0.078593664"/>
										</Node>
									</Node>
									<Node score="0.00045763209671594376">
										<SimplePredicate field="ovd_features_157" operator="greaterOrEqual" value="0.09799996"/>
									</Node>
								</Node>
							</TreeModel>
						</Segment>
						<Segment id="11">
							<True/>
							<TreeModel functionName="regression" noTrueChildStrategy="returnLastPrediction" x-mathContext="float">
								<MiningSchema>
									<MiningField name="cheat_career_xjdk_features_732"/>
									<MiningField name="fp_features_32"/>
									<MiningField name="fp_features_89"/>
									<MiningField name="group_aml_nsf_profile_features_760"/>
									<MiningField name="ovd_features_165"/>
									<MiningField name="ovd_features_342"/>
									<MiningField name="ovd_features_522"/>
								</MiningSchema>
								<Node score="-0.014032333903284056">
									<True/>
									<Node score="0.05239302609671595">
										<SimplePredicate field="fp_features_32" operator="greaterOrEqual" value="271.785"/>
										<Node score="0.09529160609671594">
											<SimplePredicate field="fp_features_89" operator="greaterOrEqual" value="3232.0"/>
											<Node score="-0.014032333903284056">
												<SimplePredicate field="cheat_career_xjdk_features_732" operator="greaterOrEqual" value="2254.45"/>
											</Node>
										</Node>
										<Node score="-0.014032333903284056">
											<SimplePredicate field="ovd_features_522" operator="greaterOrEqual" value="0.96308047"/>
										</Node>
									</Node>
									<Node score="0.08238411609671595">
										<SimplePredicate field="ovd_features_342" operator="greaterOrEqual" value="-49989.5"/>
										<Node score="-0.014032333903284056">
											<SimplePredicate field="group_aml_nsf_profile_features_760" operator="greaterOrEqual" value="3.5"/>
										</Node>
									</Node>
									<Node score="-0.07567839690328405">
										<SimplePredicate field="ovd_features_165" operator="greaterOrEqual" value="39.5"/>
									</Node>
								</Node>
							</TreeModel>
						</Segment>
						<Segment id="12">
							<True/>
							<TreeModel functionName="regression" noTrueChildStrategy="returnLastPrediction" x-mathContext="float">
								<MiningSchema>
									<MiningField name="cheat_career_xjdk_features_20"/>
									<MiningField name="fp_features_7"/>
									<MiningField name="fp_features_92"/>
									<MiningField name="group_aml_nsf_profile_features_760"/>
									<MiningField name="ovd_features_419"/>
									<MiningField name="ovd_features_622"/>
								</MiningSchema>
								<Node score="-0.05774137390328406">
									<True/>
									<Node score="0.04784489809671594">
										<SimplePredicate field="fp_features_7" operator="greaterOrEqual" value="14.5"/>
										<Node score="0.08899457009671595">
											<SimplePredicate field="fp_features_92" operator="greaterOrEqual" value="0.406785"/>
											<Node score="-0.014032333903284056">
												<SimplePredicate field="group_aml_nsf_profile_features_760" operator="greaterOrEqual" value="3.5"/>
											</Node>
										</Node>
										<Node score="-0.014032333903284056">
											<SimplePredicate field="group_aml_nsf_profile_features_760" operator="greaterOrEqual" value="2.5"/>
										</Node>
									</Node>
									<Node score="0.023952726096715945">
										<SimplePredicate field="cheat_career_xjdk_features_20" operator="greaterOrEqual" value="0.26916882"/>
										<Node score="-0.026694840903284056">
											<SimplePredicate field="ovd_features_622" operator="greaterOrEqual" value="41.5"/>
										</Node>
									</Node>
									<Node score="0.07135939609671595">
										<SimplePredicate field="ovd_features_419" operator="greaterOrEqual" value="51952.0"/>
									</Node>
								</Node>
							</TreeModel>
						</Segment>
						<Segment id="13">
							<True/>
							<TreeModel functionName="regression" noTrueChildStrategy="returnLastPrediction" x-mathContext="float">
								<MiningSchema>
									<MiningField name="cheat_career_xjdk_features_732"/>
									<MiningField name="fp_features_114"/>
									<MiningField name="fp_features_92"/>
									<MiningField name="group_aml_nsf_profile_features_441"/>
									<MiningField name="ovd_features_127"/>
									<MiningField name="ovd_features_157"/>
									<MiningField name="ovd_features_321"/>
								</MiningSchema>
								<Node score="-0.018240690903284056">
									<True/>
									<Node score="0.07415999609671595">
										<SimplePredicate field="fp_features_114" operator="greaterOrEqual" value="-49989.5"/>
										<Node score="-0.045956843903284056">
											<SimplePredicate field="ovd_features_321" operator="greaterOrEqual" value="31.5"/>
											<Node score="-0.014032333903284056">
												<SimplePredicate field="fp_features_92" operator="greaterOrEqual" value="0.12132159"/>
											</Node>
										</Node>
										<Node score="-0.014032333903284056">
											<SimplePredicate field="cheat_career_xjdk_features_732" operator="greaterOrEqual" value="7059.625"/>
										</Node>
									</Node>
									<Node score="-0.08434875390328406">
										<SimplePredicate field="ovd_features_127" operator="greaterOrEqual" value="0.5"/>
										<Node score="-0.019053883203284057">
											<SimplePredicate field="ovd_features_157" operator="greaterOrEqual" value="0.01710735"/>
										</Node>
									</Node>
									<Node score="0.03337556109671594">
										<SimplePredicate field="group_aml_nsf_profile_features_441" operator="greaterOrEqual" value="0.078593664"/>
									</Node>
								</Node>
							</TreeModel>
						</Segment>
						<Segment id="14">
							<True/>
							<TreeModel functionName="regression" noTrueChildStrategy="returnLastPrediction" x-mathContext="float">
								<MiningSchema>
									<MiningField name="fp_features_4"/>
									<MiningField name="fp_features_91"/>
									<MiningField name="group_aml_nsf_profile_features_411"/>
									<MiningField name="ovd_features_309"/>
									<MiningField name="ovd_features_495"/>
									<MiningField name="ovd_features_85"/>
								</MiningSchema>
								<Node score="-0.03741992290328405">
									<True/>
									<Node score="0.08902680109671594">
										<SimplePredicate field="fp_features_4" operator="greaterOrEqual" value="17.5"/>
										<Node score="-0.014032333903284056">
											<SimplePredicate field="ovd_features_495" operator="greaterOrEqual" value="29467.525"/>
										</Node>
										<Node score="-0.014032333903284056">
											<SimplePredicate field="ovd_features_85" operator="greaterOrEqual" value="108.5"/>
										</Node>
									</Node>
									<Node score="0.07052992609671595">
										<SimplePredicate field="fp_features_91" operator="greaterOrEqual" value="0.101282045"/>
										<Node score="-0.014032333903284056">
											<SimplePredicate field="ovd_features_309" operator="greaterOrEqual" value="97.0"/>
										</Node>
									</Node>
									<Node score="0.054699646096715945">
										<SimplePredicate field="group_aml_nsf_profile_features_411" operator="greaterOrEqual" value="0.20692274"/>
									</Node>
								</Node>
							</TreeModel>
						</Segment>
						<Segment id="15">
							<True/>
							<TreeModel functionName="regression" noTrueChildStrategy="returnLastPrediction" x-mathContext="float">
								<MiningSchema>
									<MiningField name="fp_features_114"/>
									<MiningField name="fp_features_31"/>
									<MiningField name="ovd_features_115"/>
									<MiningField name="ovd_features_157"/>
									<MiningField name="ovd_features_165"/>
									<MiningField name="ovd_features_256"/>
									<MiningField name="ovd_features_342"/>
								</MiningSchema>
								<Node score="-0.014682472143284057">
									<True/>
									<Node score="0.07194162209671595">
										<SimplePredicate field="fp_features_114" operator="greaterOrEqual" value="-49989.5"/>
										<Node score="-0.04067441590328406">
											<SimplePredicate field="ovd_features_157" operator="greaterOrEqual" value="0.7855805"/>
											<Node score="-0.009191638103284057">
												<SimplePredicate field="fp_features_31" operator="greaterOrEqual" value="2.5"/>
											</Node>
										</Node>
										<Node score="-0.014032333903284056">
											<SimplePredicate field="ovd_features_256" operator="greaterOrEqual" value="121202.7"/>
										</Node>
									</Node>
									<Node score="0.06634648209671595">
										<SimplePredicate field="ovd_features_342" operator="greaterOrEqual" value="-49989.5"/>
										<Node score="-0.014032333903284056">
											<SimplePredicate field="ovd_features_115" operator="greaterOrEqual" value="4.5"/>
										</Node>
									</Node>
									<Node score="-0.06970798990328406">
										<SimplePredicate field="ovd_features_165" operator="greaterOrEqual" value="42.5"/>
									</Node>
								</Node>
							</TreeModel>
						</Segment>
						<Segment id="16">
							<True/>
							<TreeModel functionName="regression" noTrueChildStrategy="returnLastPrediction" x-mathContext="float">
								<MiningSchema>
									<MiningField name="fp_features_32"/>
									<MiningField name="fp_features_4"/>
									<MiningField name="fp_features_55"/>
									<MiningField name="group_aml_nsf_profile_features_760"/>
									<MiningField name="ovd_features_151"/>
									<MiningField name="ovd_features_157"/>
									<MiningField name="ovd_features_560"/>
								</MiningSchema>
								<Node score="-0.054318516903284056">
									<True/>
									<Node score="0.06728707609671594">
										<SimplePredicate field="fp_features_32" operator="greaterOrEqual" value="99.994995"/>
										<Node score="-0.021377933503284055">
											<SimplePredicate field="group_aml_nsf_profile_features_760" operator="greaterOrEqual" value="2.5"/>
											<Node score="0.03793918609671594">
												<SimplePredicate field="fp_features_55" operator="greaterOrEqual" value="0.06439394"/>
											</Node>
										</Node>
										<Node score="-6.476290328405639e-05">
											<SimplePredicate field="ovd_features_151" operator="greaterOrEqual" value="337.5"/>
										</Node>
									</Node>
									<Node score="0.08584468609671594">
										<SimplePredicate field="fp_features_4" operator="greaterOrEqual" value="18.0"/>
										<Node score="-0.014032333903284056">
											<SimplePredicate field="ovd_features_560" operator="greaterOrEqual" value="0.99941707"/>
										</Node>
									</Node>
									<Node score="-0.008246307503284056">
										<SimplePredicate field="ovd_features_157" operator="greaterOrEqual" value="0.02635964"/>
									</Node>
								</Node>
							</TreeModel>
						</Segment>
						<Segment id="17">
							<True/>
							<TreeModel functionName="regression" noTrueChildStrategy="returnLastPrediction" x-mathContext="float">
								<MiningSchema>
									<MiningField name="fp_features_4"/>
									<MiningField name="ovd_features_113"/>
									<MiningField name="ovd_features_127"/>
									<MiningField name="ovd_features_155"/>
									<MiningField name="ovd_features_328"/>
									<MiningField name="ovd_features_342"/>
								</MiningSchema>
								<Node score="-0.006981900903284056">
									<True/>
									<Node score="0.07670310109671595">
										<SimplePredicate field="fp_features_4" operator="greaterOrEqual" value="16.5"/>
										<Node score="-0.014032333903284056">
											<SimplePredicate field="ovd_features_328" operator="greaterOrEqual" value="3918.0"/>
										</Node>
										<Node score="-0.014032333903284056">
											<SimplePredicate field="ovd_features_155" operator="greaterOrEqual" value="0.9999151"/>
										</Node>
									</Node>
									<Node score="0.06241247109671595">
										<SimplePredicate field="ovd_features_342" operator="greaterOrEqual" value="-49989.5"/>
										<Node score="-0.014032333903284056">
											<SimplePredicate field="ovd_features_113" operator="greaterOrEqual" value="5.5"/>
										</Node>
									</Node>
									<Node score="-0.05280863890328405">
										<SimplePredicate field="ovd_features_127" operator="greaterOrEqual" value="0.5"/>
									</Node>
								</Node>
							</TreeModel>
						</Segment>
						<Segment id="18">
							<True/>
							<TreeModel functionName="regression" noTrueChildStrategy="returnLastPrediction" x-mathContext="float">
								<MiningSchema>
									<MiningField name="cheat_career_xjdk_features_18"/>
									<MiningField name="cheat_career_xjdk_features_20"/>
									<MiningField name="fp_features_91"/>
									<MiningField name="group_aml_nsf_profile_features_411"/>
									<MiningField name="ovd_features_123"/>
									<MiningField name="ovd_features_315"/>
								</MiningSchema>
								<Node score="-0.04625445390328406">
									<True/>
									<Node score="0.06577916609671594">
										<SimplePredicate field="fp_features_91" operator="greaterOrEqual" value="0.052241713"/>
										<Node score="-0.014032333903284056">
											<SimplePredicate field="ovd_features_315" operator="greaterOrEqual" value="6325.0947"/>
										</Node>
										<Node score="-0.014032333903284056">
											<SimplePredicate field="ovd_features_123" operator="greaterOrEqual" value="5902.545"/>
										</Node>
									</Node>
									<Node score="-0.028187921903284056">
										<SimplePredicate field="cheat_career_xjdk_features_20" operator="greaterOrEqual" value="0.31310835"/>
										<Node score="0.021434143096715947">
											<SimplePredicate field="cheat_career_xjdk_features_18" operator="greaterOrEqual" value="0.04412993"/>
										</Node>
									</Node>
									<Node score="0.04359195409671594">
										<SimplePredicate field="group_aml_nsf_profile_features_411" operator="greaterOrEqual" value="0.07514825"/>
									</Node>
								</Node>
							</TreeModel>
						</Segment>
						<Segment id="19">
							<True/>
							<TreeModel functionName="regression" noTrueChildStrategy="returnLastPrediction" x-mathContext="float">
								<MiningSchema>
									<MiningField name="fp_features_4"/>
									<MiningField name="group_aml_nsf_profile_features_760"/>
									<MiningField name="ovd_features_108"/>
									<MiningField name="ovd_features_120"/>
									<MiningField name="ovd_features_622"/>
									<MiningField name="ovd_features_9"/>
								</MiningSchema>
								<Node score="-0.014032333903284056">
									<True/>
									<Node score="0.012325084096715944">
										<SimplePredicate field="fp_features_4" operator="greaterOrEqual" value="-49989.5"/>
										<Node score="0.07098399609671595">
											<SimplePredicate field="fp_features_4" operator="greaterOrEqual" value="16.5"/>
											<Node score="-0.014032333903284056">
												<SimplePredicate field="ovd_features_120" operator="greaterOrEqual" value="34298.633"/>
											</Node>
										</Node>
										<Node score="-0.04440332890328406">
											<SimplePredicate field="group_aml_nsf_profile_features_760" operator="greaterOrEqual" value="2.5"/>
										</Node>
									</Node>
									<Node score="0.06016052609671595">
										<SimplePredicate field="ovd_features_9" operator="greaterOrEqual" value="9.5"/>
										<Node score="-0.014032333903284056">
											<SimplePredicate field="ovd_features_108" operator="greaterOrEqual" value="8654.921"/>
										</Node>
									</Node>
									<Node score="-0.07031371790328406">
										<SimplePredicate field="ovd_features_622" operator="greaterOrEqual" value="30.5"/>
									</Node>
								</Node>
							</TreeModel>
						</Segment>
						<Segment id="20">
							<True/>
							<TreeModel functionName="regression" noTrueChildStrategy="returnLastPrediction" x-mathContext="float">
								<MiningSchema>
									<MiningField name="cheat_career_xjdk_features_14"/>
									<MiningField name="cheat_career_xjdk_features_20"/>
									<MiningField name="cheat_career_xjdk_features_3"/>
									<MiningField name="ovd_features_123"/>
									<MiningField name="ovd_features_165"/>
									<MiningField name="ovd_features_342"/>
									<MiningField name="ovd_features_522"/>
								</MiningSchema>
								<Node score="-0.004334012903284057">
									<True/>
									<Node score="0.06250547609671595">
										<SimplePredicate field="ovd_features_342" operator="greaterOrEqual" value="-49989.5"/>
										<Node score="0.011809388096715945">
											<SimplePredicate field="ovd_features_123" operator="greaterOrEqual" value="1619.885"/>
											<Node score="-0.04920783390328405">
												<SimplePredicate field="ovd_features_522" operator="greaterOrEqual" value="0.95323217"/>
											</Node>
										</Node>
										<Node score="-0.03578577390328405">
											<SimplePredicate field="cheat_career_xjdk_features_3" operator="greaterOrEqual" value="0.11277099"/>
										</Node>
									</Node>
									<Node score="0.027559590096715946">
										<SimplePredicate field="cheat_career_xjdk_features_20" operator="greaterOrEqual" value="0.37925708"/>
										<Node score="-0.019211319603284056">
											<SimplePredicate field="cheat_career_xjdk_features_14" operator="greaterOrEqual" value="0.037578125"/>
										</Node>
									</Node>
									<Node score="-0.05344037390328406">
										<SimplePredicate field="ovd_features_165" operator="greaterOrEqual" value="27.5"/>
									</Node>
								</Node>
							</TreeModel>
						</Segment>
						<Segment id="21">
							<True/>
							<TreeModel functionName="regression" noTrueChildStrategy="returnLastPrediction" x-mathContext="float">
								<MiningSchema>
									<MiningField name="fp_features_4"/>
									<MiningField name="ovd_features_120"/>
									<MiningField name="ovd_features_304"/>
									<MiningField name="ovd_features_431"/>
									<MiningField name="ovd_features_448"/>
									<MiningField name="ovd_features_636"/>
								</MiningSchema>
								<Node score="-0.03428720990328406">
									<True/>
									<Node score="0.06778862609671595">
										<SimplePredicate field="fp_features_4" operator="greaterOrEqual" value="17.5"/>
										<Node score="-0.014032333903284056">
											<SimplePredicate field="ovd_features_431" operator="greaterOrEqual" value="4.6428576"/>
										</Node>
										<Node score="-0.014032333903284056">
											<SimplePredicate field="ovd_features_120" operator="greaterOrEqual" value="37172.766"/>
										</Node>
									</Node>
									<Node score="0.11432725609671594">
										<SimplePredicate field="ovd_features_448" operator="greaterOrEqual" value="49960.0"/>
										<Node score="-0.0014623929032840568">
											<SimplePredicate field="ovd_features_304" operator="greaterOrEqual" value="120135.85"/>
										</Node>
									</Node>
									<Node score="0.015535293096715943">
										<SimplePredicate field="ovd_features_636" operator="greaterOrEqual" value="2.5"/>
									</Node>
								</Node>
							</TreeModel>
						</Segment>
						<Segment id="22">
							<True/>
							<TreeModel functionName="regression" noTrueChildStrategy="returnLastPrediction" x-mathContext="float">
								<MiningSchema>
									<MiningField name="fp_features_114"/>
									<MiningField name="fp_features_77"/>
									<MiningField name="group_aml_nsf_profile_features_411"/>
									<MiningField name="ovd_features_157"/>
									<MiningField name="ovd_features_276"/>
									<MiningField name="ovd_features_336"/>
									<MiningField name="ovd_features_423"/>
								</MiningSchema>
								<Node score="-0.031084192903284055">
									<True/>
									<Node score="0.05288255609671595">
										<SimplePredicate field="fp_features_114" operator="greaterOrEqual" value="-49989.5"/>
										<Node score="-0.05377593390328406">
											<SimplePredicate field="ovd_features_157" operator="greaterOrEqual" value="0.7855805"/>
											<Node score="-0.014032333903284056">
												<SimplePredicate field="fp_features_77" operator="greaterOrEqual" value="71.8"/>
											</Node>
										</Node>
										<Node score="-0.014032333903284056">
											<SimplePredicate field="ovd_features_276" operator="greaterOrEqual" value="119190.35"/>
										</Node>
									</Node>
									<Node score="0.09144622609671595">
										<SimplePredicate field="ovd_features_423" operator="greaterOrEqual" value="9671.061"/>
										<Node score="-0.014032333903284056">
											<SimplePredicate field="ovd_features_336" operator="greaterOrEqual" value="91354.0"/>
										</Node>
									</Node>
									<Node score="0.03890065109671595">
										<SimplePredicate field="group_aml_nsf_profile_features_411" operator="greaterOrEqual" value="0.07514825"/>
									</Node>
								</Node>
							</TreeModel>
						</Segment>
						<Segment id="23">
							<True/>
							<TreeModel functionName="regression" noTrueChildStrategy="returnLastPrediction" x-mathContext="float">
								<MiningSchema>
									<MiningField name="fp_features_4"/>
									<MiningField name="group_aml_nsf_profile_features_411"/>
									<MiningField name="ovd_features_120"/>
									<MiningField name="ovd_features_305"/>
									<MiningField name="ovd_features_431"/>
									<MiningField name="ovd_features_85"/>
								</MiningSchema>
								<Node score="-0.03685562090328406">
									<True/>
									<Node score="0.06841213609671595">
										<SimplePredicate field="fp_features_4" operator="greaterOrEqual" value="37.5"/>
										<Node score="-0.014032333903284056">
											<SimplePredicate field="ovd_features_431" operator="greaterOrEqual" value="4.625"/>
										</Node>
										<Node score="-0.014032333903284056">
											<SimplePredicate field="ovd_features_120" operator="greaterOrEqual" value="29745.89"/>
										</Node>
									</Node>
									<Node score="0.03344409609671595">
										<SimplePredicate field="ovd_features_85" operator="greaterOrEqual" value="0.5"/>
										<Node score="-0.018203198303284054">
											<SimplePredicate field="ovd_features_305" operator="greaterOrEqual" value="51.5"/>
										</Node>
									</Node>
									<Node score="0.03634472609671595">
										<SimplePredicate field="group_aml_nsf_profile_features_411" operator="greaterOrEqual" value="0.07514825"/>
									</Node>
								</Node>
							</TreeModel>
						</Segment>
						<Segment id="24">
							<True/>
							<TreeModel functionName="regression" noTrueChildStrategy="returnLastPrediction" x-mathContext="float">
								<MiningSchema>
									<MiningField name="fp_features_57"/>
									<MiningField name="fp_features_91"/>
									<MiningField name="group_aml_nsf_profile_features_411"/>
									<MiningField name="group_aml_nsf_profile_features_760"/>
									<MiningField name="ovd_features_305"/>
									<MiningField name="ovd_features_563"/>
									<MiningField name="ovd_features_61"/>
								</MiningSchema>
								<Node score="-0.03740824890328406">
									<True/>
									<Node score="0.06028575609671595">
										<SimplePredicate field="fp_features_91" operator="greaterOrEqual" value="0.100632906"/>
										<Node score="-0.014032333903284056">
											<SimplePredicate field="group_aml_nsf_profile_features_760" operator="greaterOrEqual" value="2.5"/>
											<Node score="0.022617586096715946">
												<SimplePredicate field="fp_features_57" operator="greaterOrEqual" value="0.31492957"/>
											</Node>
										</Node>
										<Node score="-0.014032333903284056">
											<SimplePredicate field="ovd_features_61" operator="greaterOrEqual" value="2827.935"/>
										</Node>
									</Node>
									<Node score="0.03192620609671594">
										<SimplePredicate field="ovd_features_563" operator="greaterOrEqual" value="35.95"/>
										<Node score="-0.014481986133284056">
											<SimplePredicate field="ovd_features_305" operator="greaterOrEqual" value="54.5"/>
										</Node>
									</Node>
									<Node score="0.03840657009671594">
										<SimplePredicate field="group_aml_nsf_profile_features_411" operator="greaterOrEqual" value="0.78969"/>
									</Node>
								</Node>
							</TreeModel>
						</Segment>
						<Segment id="25">
							<True/>
							<TreeModel functionName="regression" noTrueChildStrategy="returnLastPrediction" x-mathContext="float">
								<MiningSchema>
									<MiningField name="cheat_career_xjdk_features_22"/>
									<MiningField name="fp_features_4"/>
									<MiningField name="group_aml_nsf_profile_features_441"/>
									<MiningField name="ovd_features_108"/>
									<MiningField name="ovd_features_11"/>
									<MiningField name="ovd_features_377"/>
									<MiningField name="ovd_features_486"/>
								</MiningSchema>
								<Node score="-0.029982629903284055">
									<True/>
									<Node score="-0.021978961903284057">
										<SimplePredicate field="fp_features_4" operator="greaterOrEqual" value="-49989.5"/>
										<Node score="0.03695974909671594">
											<SimplePredicate field="group_aml_nsf_profile_features_441" operator="greaterOrEqual" value="-0.35257953"/>
											<Node score="-0.004114238903284056">
												<SimplePredicate field="ovd_features_108" operator="greaterOrEqual" value="11072.608"/>
											</Node>
										</Node>
										<Node score="0.07531495609671594">
											<SimplePredicate field="ovd_features_377" operator="greaterOrEqual" value="0.5"/>
										</Node>
									</Node>
									<Node score="-0.08043641390328406">
										<SimplePredicate field="cheat_career_xjdk_features_22" operator="greaterOrEqual" value="0.02226313"/>
										<Node score="-0.007889113703284056">
											<SimplePredicate field="ovd_features_486" operator="greaterOrEqual" value="2739.5254"/>
										</Node>
									</Node>
									<Node score="0.04523552209671594">
										<SimplePredicate field="ovd_features_11" operator="greaterOrEqual" value="9.5"/>
									</Node>
								</Node>
							</TreeModel>
						</Segment>
						<Segment id="26">
							<True/>
							<TreeModel functionName="regression" noTrueChildStrategy="returnLastPrediction" x-mathContext="float">
								<MiningSchema>
									<MiningField name="ovd_features_127"/>
									<MiningField name="ovd_features_336"/>
									<MiningField name="ovd_features_422"/>
									<MiningField name="ovd_features_423"/>
									<MiningField name="ovd_features_551"/>
									<MiningField name="ovd_features_626"/>
									<MiningField name="ovd_features_632"/>
								</MiningSchema>
								<Node score="0.022950962096715943">
									<True/>
									<Node score="-0.014032333903284056">
										<SimplePredicate field="ovd_features_423" operator="greaterOrEqual" value="13468.951"/>
										<Node score="0.027630434096715947">
											<SimplePredicate field="ovd_features_336" operator="greaterOrEqual" value="82936.5"/>
											<Node score="-0.014032333903284056">
												<SimplePredicate field="ovd_features_632" operator="greaterOrEqual" value="6.5"/>
											</Node>
										</Node>
										<Node score="0.09802914609671595">
											<SimplePredicate field="ovd_features_422" operator="greaterOrEqual" value="41832.47"/>
										</Node>
									</Node>
									<Node score="-0.05685776090328405">
										<SimplePredicate field="ovd_features_127" operator="greaterOrEqual" value="0.5"/>
										<Node score="-0.0072851514032840564">
											<SimplePredicate field="ovd_features_551" operator="greaterOrEqual" value="1.1676707"/>
										</Node>
									</Node>
									<Node score="-0.014286170733284056">
										<SimplePredicate field="ovd_features_626" operator="greaterOrEqual" value="1019.5"/>
									</Node>
								</Node>
							</TreeModel>
						</Segment>
						<Segment id="27">
							<True/>
							<TreeModel functionName="regression" noTrueChildStrategy="returnLastPrediction" x-mathContext="float">
								<MiningSchema>
									<MiningField name="cheat_career_xjdk_features_14"/>
									<MiningField name="cheat_career_xjdk_features_20"/>
									<MiningField name="fp_features_28"/>
									<MiningField name="group_aml_nsf_profile_features_760"/>
									<MiningField name="ovd_features_323"/>
									<MiningField name="ovd_features_564"/>
									<MiningField name="ovd_features_82"/>
								</MiningSchema>
								<Node score="-0.02508426890328406">
									<True/>
									<Node score="0.0065697020967159445">
										<SimplePredicate field="cheat_career_xjdk_features_20" operator="greaterOrEqual" value="0.24456915"/>
										<Node score="-0.04298382990328406">
											<SimplePredicate field="group_aml_nsf_profile_features_760" operator="greaterOrEqual" value="2.5"/>
											<Node score="0.002511494096715944">
												<SimplePredicate field="ovd_features_82" operator="greaterOrEqual" value="0.5"/>
											</Node>
										</Node>
										<Node score="0.04325245009671594">
											<SimplePredicate field="fp_features_28" operator="greaterOrEqual" value="-49989.5"/>
